digraph Tree {
node [shape=box, fontname="helvetica"] ;
edge [fontname="helvetica"] ;
0 [label="x[2] <= 0.024\nentropy = 0.998\nsamples = 462\nvalue = [242, 220]"] ;
1 [label="x[16] <= 0.789\nentropy = 0.28\nsamples = 186\nvalue = [9, 177]"] ;
0 -> 1 [labeldistance=2.5, labelangle=45, headlabel="True"] ;
2 [label="entropy = 0.0\nsamples = 160\nvalue = [0, 160]"] ;
1 -> 2 ;
3 [label="x[15] <= -0.428\nentropy = 0.931\nsamples = 26\nvalue = [9, 17]"] ;
1 -> 3 ;
4 [label="x[3] <= -0.668\nentropy = 0.89\nsamples = 13\nvalue = [9, 4]"] ;
3 -> 4 ;
5 [label="x[11] <= 1.017\nentropy = 0.722\nsamples = 5\nvalue = [1, 4]"] ;
4 -> 5 ;
6 [label="entropy = 0.0\nsamples = 4\nvalue = [0, 4]"] ;
5 -> 6 ;
7 [label="entropy = 0.0\nsamples = 1\nvalue = [1, 0]"] ;
5 -> 7 ;
8 [label="entropy = 0.0\nsamples = 8\nvalue = [8, 0]"] ;
4 -> 8 ;
9 [label="entropy = 0.0\nsamples = 13\nvalue = [0, 13]"] ;
3 -> 9 ;
10 [label="x[13] <= 0.462\nentropy = 0.624\nsamples = 276\nvalue = [233, 43]"] ;
0 -> 10 [labeldistance=2.5, labelangle=-45, headlabel="False"] ;
11 [label="x[19] <= -1.049\nentropy = 0.996\nsamples = 89\nvalue = [48, 41]"] ;
10 -> 11 ;
12 [label="entropy = 0.0\nsamples = 45\nvalue = [45, 0]"] ;
11 -> 12 ;
13 [label="x[25] <= 0.239\nentropy = 0.359\nsamples = 44\nvalue = [3, 41]"] ;
11 -> 13 ;
14 [label="entropy = 0.0\nsamples = 35\nvalue = [0, 35]"] ;
13 -> 14 ;
15 [label="x[34] <= -0.32\nentropy = 0.918\nsamples = 9\nvalue = [3, 6]"] ;
13 -> 15 ;
16 [label="entropy = 0.0\nsamples = 5\nvalue = [0, 5]"] ;
15 -> 16 ;
17 [label="x[26] <= 1.067\nentropy = 0.811\nsamples = 4\nvalue = [3, 1]"] ;
15 -> 17 ;
18 [label="entropy = 0.0\nsamples = 3\nvalue = [3, 0]"] ;
17 -> 18 ;
19 [label="entropy = 0.0\nsamples = 1\nvalue = [0, 1]"] ;
17 -> 19 ;
20 [label="x[17] <= 0.476\nentropy = 0.085\nsamples = 187\nvalue = [185.0, 2.0]"] ;
10 -> 20 ;
21 [label="entropy = 0.0\nsamples = 184\nvalue = [184, 0]"] ;
20 -> 21 ;
22 [label="x[25] <= -0.263\nentropy = 0.918\nsamples = 3\nvalue = [1, 2]"] ;
20 -> 22 ;
23 [label="entropy = 0.0\nsamples = 2\nvalue = [0, 2]"] ;
22 -> 23 ;
24 [label="entropy = 0.0\nsamples = 1\nvalue = [1, 0]"] ;
22 -> 24 ;
}