digraph Tree {
node [shape=box, style="filled, rounded", color="black", fontname="helvetica"] ;
edge [fontname="helvetica"] ;
0 [label=<mfcc3_mean &le; -12.152<br/>squared_error = 0.014<br/>samples = 1599<br/>value = 0.846>, fillcolor="#ea995e"] ;
1 [label=<centroid &le; 1579.233<br/>squared_error = 0.011<br/>samples = 1288<br/>value = 0.873>, fillcolor="#e88e4e"] ;
0 -> 1 [labeldistance=2.5, labelangle=45, headlabel="True"] ;
2 [label=<mfcc5_mean &le; -12.331<br/>squared_error = 0.007<br/>samples = 1153<br/>value = 0.892>, fillcolor="#e68742"] ;
1 -> 2 ;
3 [label=<mfcc3_mean &le; -29.9<br/>squared_error = 0.012<br/>samples = 56<br/>value = 0.741>, fillcolor="#f2c29f"] ;
2 -> 3 ;
4 [label=<squared_error = 0.008<br/>samples = 31<br/>value = 0.789>, fillcolor="#efaf81"] ;
3 -> 4 ;
5 [label=<squared_error = 0.011<br/>samples = 25<br/>value = 0.681>, fillcolor="#f7dac4"] ;
3 -> 5 ;
6 [label=<mfcc10_mean &le; -11.715<br/>squared_error = 0.006<br/>samples = 1097<br/>value = 0.899>, fillcolor="#e6843e"] ;
2 -> 6 ;
7 [label=<squared_error = 0.014<br/>samples = 58<br/>value = 0.764>, fillcolor="#f1b991"] ;
6 -> 7 ;
8 [label=<squared_error = 0.004<br/>samples = 1039<br/>value = 0.907>, fillcolor="#e58139"] ;
6 -> 8 ;
9 [label=<mfcc2_mean &le; 126.108<br/>squared_error = 0.012<br/>samples = 135<br/>value = 0.714>, fillcolor="#f5ccb0"] ;
1 -> 9 ;
10 [label=<squared_error = 0.006<br/>samples = 38<br/>value = 0.623>, fillcolor="#fcf0e8"] ;
9 -> 10 ;
11 [label=<centroid &le; 1692.96<br/>squared_error = 0.01<br/>samples = 97<br/>value = 0.75>, fillcolor="#f2be9a"] ;
9 -> 11 ;
12 [label=<squared_error = 0.009<br/>samples = 60<br/>value = 0.782>, fillcolor="#efb286"] ;
11 -> 12 ;
13 [label=<squared_error = 0.007<br/>samples = 37<br/>value = 0.699>, fillcolor="#f6d3b9"] ;
11 -> 13 ;
14 [label=<mfcc3_mean &le; -2.133<br/>squared_error = 0.013<br/>samples = 311<br/>value = 0.736>, fillcolor="#f3c4a2"] ;
0 -> 14 [labeldistance=2.5, labelangle=-45, headlabel="False"] ;
15 [label=<mfcc5_mean &le; -1.923<br/>squared_error = 0.011<br/>samples = 253<br/>value = 0.762>, fillcolor="#f1ba92"] ;
14 -> 15 ;
16 [label=<squared_error = 0.008<br/>samples = 27<br/>value = 0.616>, fillcolor="#fdf3ec"] ;
15 -> 16 ;
17 [label=<mfcc3_mean &le; -8.441<br/>squared_error = 0.009<br/>samples = 226<br/>value = 0.779>, fillcolor="#efb388"] ;
15 -> 17 ;
18 [label=<squared_error = 0.007<br/>samples = 103<br/>value = 0.822>, fillcolor="#eca26d"] ;
17 -> 18 ;
19 [label=<squared_error = 0.008<br/>samples = 123<br/>value = 0.743>, fillcolor="#f2c19e"] ;
17 -> 19 ;
20 [label=<mfcc2_mean &le; 133.179<br/>squared_error = 0.006<br/>samples = 58<br/>value = 0.622>, fillcolor="#fcf1e8"] ;
14 -> 20 ;
21 [label=<squared_error = 0.004<br/>samples = 28<br/>value = 0.586>, fillcolor="#ffffff"] ;
20 -> 21 ;
22 [label=<squared_error = 0.007<br/>samples = 30<br/>value = 0.657>, fillcolor="#f9e3d3"] ;
20 -> 22 ;
}